{
 "type": "LSTMTimeStep",
 "options": {
  "inputSize": 1,
  "hiddenLayers": [
   14
  ],
  "outputSize": 1,
  "decayRate": 0.999,
  "smoothEps": 1e-8,
  "regc": 0.000001,
  "clipval": 5
 },
 "hiddenLayers": [
  {
   "inputMatrix": {
    "rows": 14,
    "columns": 1,
    "weights": {
     "0": 0.17433178424835205,
     "1": 0.32277825474739075,
     "2": 0.1743321269750595,
     "3": 0.32277828454971313,
     "4": 0.36677756905555725,
     "5": 0.17433196306228638,
     "6": 0.1743318885564804,
     "7": 0.17433178424835205,
     "8": 0.1743319034576416,
     "9": 0.17433185875415802,
     "10": 0.9612278938293457,
     "11": 0.3227781057357788,
     "12": 0.1743316650390625,
     "13": 0.24348361790180206
    }
   },
   "inputHidden": {
    "rows": 14,
    "columns": 14,
    "weights": {
     "0": 2.530670653881042e-32,
     "1": -2.704389617149375e-32,
     "2": 7.481458040379435e-33,
     "3": 3.393172809533999e-33,
     "4": -9.530544527902321e-33,
     "5": 1.2261147375201446e-32,
     "6": -2.3597649424678142e-32,
     "7": 1.2653270984800652e-32,
     "8": 2.784054632546128e-32,
     "9": 7.833492149827816e-33,
     "10": 2.6279654396778396e-32,
     "11": 1.4204262312313734e-32,
     "12": -2.6430341017610305e-32,
     "13": 9.644996351699141e-34,
     "14": 1.987925810323191e-32,
     "15": -3.067118374201538e-32,
     "16": 2.8174847367943537e-33,
     "17": -2.1671553441713853e-32,
     "18": 2.3792408267458256e-32,
     "19": 6.956376468810627e-33,
     "20": 3.008276286140442e-33,
     "21": 5.779839142258473e-34,
     "22": 1.8893015404156134e-32,
     "23": -2.1540509331484184e-32,
     "24": 2.2797837190906904e-32,
     "25": -2.2621301449300412e-32,
     "26": 1.6864466639652035e-33,
     "27": -1.3897877056611598e-32,
     "28": -3.074085235345274e-32,
     "29": 2.2670813271357047e-32,
     "30": -1.0793760879338691e-32,
     "31": 1.9961131284766682e-32,
     "32": -1.7482604384793766e-32,
     "33": 1.0510313926524913e-32,
     "34": -5.317846444333794e-33,
     "35": -1.1618947628040368e-32,
     "36": -3.0132924878773855e-32,
     "37": 1.0423904806163905e-32,
     "38": -1.4804385973871098e-32,
     "39": 1.3069354842689463e-32,
     "40": -1.8890258869903455e-32,
     "41": -2.9339839411425197e-32,
     "42": -8.251864548280884e-33,
     "43": 1.516154083058525e-32,
     "44": -1.1298922229764877e-32,
     "45": -3.6969245905483094e-33,
     "46": 2.0901191749534528e-32,
     "47": -1.814658824632749e-32,
     "48": -2.2574773913526928e-32,
     "49": 3.697077772155901e-33,
     "50": -1.6140135469540988e-32,
     "51": 2.470236432190154e-32,
     "52": 1.1792669530044578e-32,
     "53": -1.89783379269266e-33,
     "54": -7.947357879488156e-33,
     "55": 2.3559595733806148e-32,
     "56": -2.7680064897951143e-32,
     "57": -1.206307731177186e-32,
     "58": -2.7573274174914815e-32,
     "59": -9.78073454147943e-33,
     "60": 2.7976412901265196e-32,
     "61": 2.664775751400252e-32,
     "62": 3.813242327956067e-33,
     "63": 1.145321761825381e-32,
     "64": -5.84974184237554e-33,
     "65": 2.9630855078490332e-33,
     "66": 2.6289696057270296e-32,
     "67": 1.9633798719732893e-32,
     "68": 1.9503743494125853e-33,
     "69": -2.294148590665525e-33,
     "70": -1.3461764244352714e-32,
     "71": 9.450585932791451e-33,
     "72": 1.322693132978513e-32,
     "73": 2.651733053830703e-32,
     "74": -2.3800311262915628e-33,
     "75": 1.773416605334149e-32,
     "76": -1.3866027037176068e-32,
     "77": 8.637209228895692e-33,
     "78": 1.712765064125153e-32,
     "79": -2.3524322087073848e-32,
     "80": 2.584888567571194e-32,
     "81": 1.3040940205494212e-32,
     "82": -3.2636810865313854e-33,
     "83": 2.778301175446028e-32,
     "84": -7.572602933606318e-33,
     "85": 5.834274540770626e-33,
     "86": -3.78293183877813e-34,
     "87": -1.8827624122787828e-32,
     "88": 2.503660732435023e-32,
     "89": 1.912000189393198e-32,
     "90": 2.32935207507876e-33,
     "91": 2.760157420141086e-32,
     "92": -1.599810048713113e-32,
     "93": -9.034423463717929e-33,
     "94": 1.6921070366063975e-33,
     "95": 1.1568385207907685e-32,
     "96": 3.0035955411038647e-32,
     "97": -1.5714650595581476e-32,
     "98": -1.960657353588388e-33,
     "99": -1.88723472747328e-32,
     "100": 2.37153105317237e-32,
     "101": 2.623865903129347e-32,
     "102": 2.2883004695359855e-32,
     "103": -8.754358995898642e-33,
     "104": -2.0187372804997694e-32,
     "105": -2.1597667744292918e-32,
     "106": 2.890635529840834e-32,
     "107": 2.1398317126704905e-32,
     "108": -3.083566478905419e-32,
     "109": -2.561527380590127e-32,
     "110": -1.6418114904255504e-32,
     "111": -2.430376263640335e-33,
     "112": -6.740304444082167e-33,
     "113": -5.515957650065659e-33,
     "114": -2.4535764446295377e-32,
     "115": -1.6771340671102032e-32,
     "116": 1.4840752830349663e-32,
     "117": 2.4466737948647154e-32,
     "118": 2.8605666782203875e-32,
     "119": 3.6842354963731674e-33,
     "120": -1.4749383123828185e-32,
     "121": 3.076709526483485e-32,
     "122": -9.036883185647024e-33,
     "123": 1.2993492845391209e-32,
     "124": 2.2425030626911554e-32,
     "125": 2.145094107005534e-32,
     "126": -2.4606599735875928e-32,
     "127": -9.885350599966736e-33,
     "128": -2.3271584924175302e-32,
     "129": -9.373825416998786e-33,
     "130": -2.2840795631957704e-32,
     "131": -2.3720826538964933e-32,
     "132": 2.551843658128053e-32,
     "133": 2.792206391995493e-32,
     "134": 1.538534907751006e-32,
     "135": -1.3526796999944018e-32,
     "136": -8.558027194740334e-33,
     "137": 5.704572698152803e-33,
     "138": 1.5024057950048952e-32,
     "139": -2.800463652062844e-32,
     "140": -2.683227302554117e-33,
     "141": -4.8698442414003114e-33,
     "142": 2.517949123408657e-33,
     "143": 1.8786956426353193e-32,
     "144": 3.001627763560588e-32,
     "145": 2.0272813611887212e-32,
     "146": -2.460841293591207e-32,
     "147": -5.706780423480441e-33,
     "148": 2.188254733084676e-32,
     "149": -6.797209390921504e-33,
     "150": -2.171458535116158e-32,
     "151": 4.159248722778623e-33,
     "152": -1.819160380249223e-32,
     "153": -1.1247163009446264e-33,
     "154": -8.613300408483936e-33,
     "155": -1.443220536061756e-32,
     "156": 4.801652436576668e-34,
     "157": -1.678642520235896e-32,
     "158": 5.9804215493564535e-33,
     "159": 1.9302554697246742e-32,
     "160": 4.5229907559611944e-33,
     "161": 2.9665786362492955e-32,
     "162": 2.226999761571748e-32,
     "163": -2.0685539964036487e-32,
     "164": -2.0923761241070316e-32,
     "165": -1.7272602319019365e-32,
     "166": 3.146121365873587e-33,
     "167": -2.7222239235664633e-32,
     "168": -1.72902490606191e-33,
     "169": 1.1236270584917957e-32,
     "170": 2.5765766470165294e-32,
     "171": -2.8116599418808385e-32,
     "172": 1.9825092792913958e-32,
     "173": 2.2079010640435567e-32,
     "174": 3.064530229514615e-32,
     "175": 1.768267205393578e-32,
     "176": 2.4234347123593403e-32,
     "177": -1.1533900611758375e-32,
     "178": 1.4643152229976436e-32,
     "179": 2.657587015697798e-32,
     "180": -1.2163286001127552e-32,
     "181": -2.119489489055923e-32,
     "182": -8.822622891586769e-33,
     "183": 6.725335258208414e-33,
     "184": 3.03152940110963e-32,
     "185": -1.7590410441075617e-32,
     "186": -1.329609153991576e-32,
     "187": -2.2299173385504888e-32,
     "188": 1.6695521285473995e-32,
     "189": -2.065715912230382e-32,
     "190": -5.798448228022448e-34,
     "191": -8.723898998532959e-33,
     "192": 4.071508355065309e-34,
     "193": -2.394364737063505e-32,
     "194": -2.451835390559176e-32,
     "195": -1.639354560295538e-32
    }
   },
   "inputBias": {
    "rows": 14,
    "columns": 1,
    "weights": {
     "0": 0.0036143797915428877,
     "1": -0.3334277868270874,
     "2": 0.0036122940946370363,
     "3": -0.333426833152771,
     "4": -0.30673694610595703,
     "5": 0.003613961860537529,
     "6": 0.0036144356708973646,
     "7": 0.0036146054044365883,
     "8": 0.003614419372752309,
     "9": 0.0036143986508250237,
     "10": -1.1313729286193848,
     "11": -0.33342668414115906,
     "12": 0.003615186084061861,
     "13": -1.455299735069275
    }
   },
   "forgetMatrix": {
    "rows": 14,
    "columns": 1,
    "weights": {
     "0": 8.123263262249018e-33,
     "1": 9.441818214302255e-33,
     "2": -4.6085142147972546e-33,
     "3": -3.0782385874945153e-33,
     "4": 7.022880796392367e-33,
     "5": -9.493622250342993e-33,
     "6": 2.4284173390388883e-32,
     "7": -1.4369173884158532e-32,
     "8": -1.2351580359662112e-32,
     "9": 1.968736893603574e-32,
     "10": -1.1242309687145306e-32,
     "11": -1.1396391282599184e-32,
     "12": -1.5928229102918255e-32,
     "13": 8.654731441562637e-34
    }
   },
   "forgetHidden": {
    "rows": 14,
    "columns": 14,
    "weights": {
     "0": 2.4685413693362685e-32,
     "1": 1.1851334044990303e-32,
     "2": -1.4544337236110438e-32,
     "3": -2.6464727166107734e-32,
     "4": -9.378068951605255e-33,
     "5": 7.4331062843102675e-34,
     "6": -2.859214859716942e-32,
     "7": -2.468165798891181e-32,
     "8": -1.4770002764109546e-32,
     "9": 1.3348138756350323e-33,
     "10": -1.248454199505156e-32,
     "11": 2.5626456430597437e-33,
     "12": -1.9117321766812104e-32,
     "13": 6.031642246325596e-33,
     "14": 2.189727921379844e-32,
     "15": -5.937669554501016e-33,
     "16": 5.8398206700546e-33,
     "17": -7.813991433231644e-33,
     "18": 1.612189767468798e-33,
     "19": -2.5912935424152367e-32,
     "20": -1.2540668911567447e-32,
     "21": 3.244335020910743e-33,
     "22": -1.578265735188036e-32,
     "23": 8.470081115515626e-33,
     "24": 6.164628860969999e-33,
     "25": -1.3312965761321813e-32,
     "26": -2.8856575316702923e-33,
     "27": 2.9830755239687355e-32,
     "28": 1.9089584003141285e-34,
     "29": 1.9310615649757505e-32,
     "30": 2.3538666056889757e-32,
     "31": -2.542981606217204e-32,
     "32": 1.8825828555166947e-32,
     "33": 8.142966016936738e-33,
     "34": 4.0057276911932936e-33,
     "35": 1.42155955472236e-32,
     "36": 2.083534349473734e-32,
     "37": -1.3687697197316634e-32,
     "38": 2.6232514134574545e-32,
     "39": 7.300160077284175e-33,
     "40": -2.909836348440753e-32,
     "41": -1.0429086532199124e-32,
     "42": -1.8586619862878427e-32,
     "43": 2.1627437138727492e-32,
     "44": 2.2787522227978438e-32,
     "45": -1.2298136509001977e-32,
     "46": -4.497272041591157e-33,
     "47": -5.713719513570139e-33,
     "48": 2.3984175477115527e-32,
     "49": 1.4459984450261652e-34,
     "50": -3.077143283898938e-32,
     "51": -1.7857999975096802e-32,
     "52": -2.439826981081557e-32,
     "53": 2.1303415059659206e-32,
     "54": -1.636599789284386e-32,
     "55": 1.987162179805538e-32,
     "56": 1.8762072680314224e-33,
     "57": 2.0270126137927644e-32,
     "58": -1.051945927257431e-32,
     "59": -2.838764196748511e-32,
     "60": -2.4023275357959753e-32,
     "61": -2.065428503861606e-32,
     "62": -1.8967493256856295e-32,
     "63": 9.820475801428823e-33,
     "64": 2.466638537855875e-32,
     "65": -1.6731789694300678e-32,
     "66": -8.635419538746566e-33,
     "67": -2.848117899171592e-32,
     "68": -1.2115829090132949e-32,
     "69": 6.472113203890154e-33,
     "70": -2.492125606370404e-32,
     "71": -2.9015235462653253e-32,
     "72": 1.6603286029401228e-34,
     "73": 6.260796788494739e-34,
     "74": -4.519061298751586e-33,
     "75": 3.8499618327398783e-33,
     "76": 2.4122040393315842e-32,
     "77": 2.0797809960115585e-32,
     "78": 1.0294269819787285e-32,
     "79": -1.2723472976799698e-32,
     "80": 1.4269180824547818e-33,
     "81": 5.4289306604865e-33,
     "82": -1.713785980968842e-32,
     "83": 1.6870802186860983e-32,
     "84": -1.5514291991587633e-32,
     "85": -3.0722144360859403e-32,
     "86": -6.369869439939601e-33,
     "87": -7.294464072470471e-33,
     "88": 2.556188285248692e-32,
     "89": 7.593379796257102e-33,
     "90": -2.761582119294283e-32,
     "91": 2.1500087019495283e-32,
     "92": 5.6498413138365325e-33,
     "93": 2.1836451789247203e-32,
     "94": -2.2622438740084833e-32,
     "95": 7.710409809773061e-33,
     "96": -2.005095374684889e-32,
     "97": -2.1608892245975332e-32,
     "98": -2.1457137394652113e-32,
     "99": 2.58616985641359e-32,
     "100": 5.383161318569296e-33,
     "101": -1.102188245584705e-32,
     "102": 8.417990552726875e-33,
     "103": -2.106703637002029e-32,
     "104": 2.653209180861748e-32,
     "105": -1.8103302136226397e-32,
     "106": -9.743638878503355e-33,
     "107": 4.8707714125695225e-33,
     "108": 1.1598555739789478e-32,
     "109": -1.688736490226407e-33,
     "110": 1.0567410625880229e-32,
     "111": 2.525022109651753e-32,
     "112": 1.3363059453082105e-32,
     "113": -5.4683137620008776e-33,
     "114": 1.075043674934219e-33,
     "115": -1.1318924000828087e-32,
     "116": -8.038614444678367e-33,
     "117": 1.396980996404223e-32,
     "118": 1.6015444906277514e-32,
     "119": 6.0579791972557695e-33,
     "120": 4.9655963377984487e-33,
     "121": 2.9369235586403385e-32,
     "122": 6.434426120318822e-33,
     "123": 1.369941981473021e-32,
     "124": -2.287907854422811e-32,
     "125": -9.472772653979252e-33,
     "126": -2.624798070149549e-32,
     "127": 2.93811580378566e-32,
     "128": -2.2439092478083265e-33,
     "129": -2.2956458398606863e-32,
     "130": -2.6421260323750203e-32,
     "131": 2.535227163858417e-32,
     "132": -2.7376596337606984e-32,
     "133": 1.098831474529138e-32,
     "134": -1.404794066543757e-32,
     "135": -2.5317982468370683e-32,
     "136": -9.106522409725614e-33,
     "137": 1.9563198529022506e-32,
     "138": 1.039077276320201e-32,
     "139": -1.2142394527777563e-32,
     "140": -1.6487145810007543e-32,
     "141": -2.0543949465428034e-33,
     "142": -2.88282436987962e-32,
     "143": -2.1119295910121972e-32,
     "144": 2.826206978345852e-32,
     "145": 2.14624418129102e-32,
     "146": 1.1784319112049924e-32,
     "147": 2.203644745936023e-32,
     "148": 1.5058347120262438e-33,
     "149": 9.953805146144887e-34,
     "150": 1.331108203162462e-32,
     "151": 2.6455652349719386e-32,
     "152": -1.048117268688406e-32,
     "153": 2.9991104424083023e-32,
     "154": 1.9747888160661873e-33,
     "155": -1.3563221161772185e-32,
     "156": -8.98933737789214e-33,
     "157": -2.719897326372598e-32,
     "158": 2.049140266389437e-32,
     "159": -2.3887690900800033e-32,
     "160": -2.736093875285403e-32,
     "161": -1.5174397800047368e-32,
     "162": -2.601192674217099e-32,
     "163": -5.712918708043641e-33,
     "164": -2.7373858170453538e-33,
     "165": 1.0723799863681564e-33,
     "166": 1.3928071098380407e-32,
     "167": -8.379202177885616e-33,
     "168": -2.2462155677246399e-32,
     "169": 2.1235822665118986e-32,
     "170": 1.9457937418010186e-32,
     "171": 5.92971072306198e-33,
     "172": -3.0387392957103986e-32,
     "173": -7.571175442654038e-33,
     "174": 1.0196213019777567e-32,
     "175": 1.5862314726563833e-32,
     "176": 1.7692810692711623e-32,
     "177": 1.7145853171274013e-32,
     "178": 1.3312607235544812e-32,
     "179": 4.424183476276873e-33,
     "180": -3.3966611808555606e-34,
     "181": 2.16288256914294e-32,
     "182": -2.4232010828571144e-32,
     "183": 2.741291029683976e-32,
     "184": -9.939678275441896e-33,
     "185": -1.4776204966178073e-32,
     "186": -4.549463990767666e-33,
     "187": 2.835797836754211e-32,
     "188": 1.8128515020683597e-32,
     "189": -4.948434487618428e-33,
     "190": 1.7755044302380032e-32,
     "191": -1.7524269782058662e-32,
     "192": 2.3007028165579238e-32,
     "193": -2.119254977932934e-32,
     "194": -2.446104267851742e-32,
     "195": -1.2873899519506488e-32
    }
   },
   "forgetBias": {
    "rows": 14,
    "columns": 1,
    "weights": {
     "0": 0,
     "1": 0,
     "2": 0,
     "3": 0,
     "4": 0,
     "5": 0,
     "6": 0,
     "7": 0,
     "8": 0,
     "9": 0,
     "10": 0,
     "11": 0,
     "12": 0,
     "13": 0
    }
   },
   "outputMatrix": {
    "rows": 14,
    "columns": 1,
    "weights": {
     "0": 0.19264532625675201,
     "1": 0.3277757465839386,
     "2": 0.19264523684978485,
     "3": 0.3277758061885834,
     "4": 0.3287109434604645,
     "5": 0.19264540076255798,
     "6": 0.1926453560590744,
     "7": 0.19264532625675201,
     "8": 0.19264541566371918,
     "9": 0.19264520704746246,
     "10": 1.040895938873291,
     "11": 0.3277760446071625,
     "12": 0.19264543056488037,
     "13": 0.2802487313747406
    }
   },
   "outputHidden": {
    "rows": 14,
    "columns": 14,
    "weights": {
     "0": 2.1811237435422065e-32,
     "1": -3.978634383116763e-33,
     "2": -6.60115383093564e-33,
     "3": -1.1344868630518674e-32,
     "4": 1.849717502835642e-32,
     "5": 5.407634008927462e-33,
     "6": 3.156037395406742e-33,
     "7": -8.176848906915221e-33,
     "8": 2.366628837653258e-33,
     "9": 2.3873273462587198e-32,
     "10": 3.021118341517985e-32,
     "11": -1.9324390974181204e-32,
     "12": -9.520921637272903e-33,
     "13": -6.955818843677956e-33,
     "14": -1.6456445203641927e-33,
     "15": 2.160251665849006e-32,
     "16": 4.0547222957355665e-33,
     "17": -3.680896357732863e-33,
     "18": -1.8841281897776445e-32,
     "19": -8.65166413599096e-33,
     "20": 1.029837743785944e-32,
     "21": 1.8701048360459223e-32,
     "22": -1.8733757960138792e-32,
     "23": -1.0959468113922202e-32,
     "24": -1.6707685080611113e-33,
     "25": -1.491788142281093e-32,
     "26": 1.8232903327140431e-32,
     "27": -2.87365757105832e-32,
     "28": -2.561902951035215e-32,
     "29": 2.905372408643505e-32,
     "30": 2.651393629836903e-32,
     "31": 1.084699240633171e-32,
     "32": 1.1111640265739962e-32,
     "33": -6.04973457375269e-33,
     "34": -2.060018952327519e-34,
     "35": 2.9037631568772295e-32,
     "36": -1.568795805761018e-32,
     "37": -2.898206007333717e-32,
     "38": -2.7084018732423194e-32,
     "39": -5.517366039234738e-33,
     "40": 7.747497391225473e-33,
     "41": 1.1998338429768261e-32,
     "42": 2.7067647034852117e-32,
     "43": -2.3008471084894872e-32,
     "44": 5.4835911477997364e-33,
     "45": -2.8371916791806986e-32,
     "46": -2.4910347476128407e-32,
     "47": -3.0524796491771604e-32,
     "48": 7.434065781574126e-33,
     "49": 2.863645297925191e-32,
     "50": -1.8898762102163716e-32,
     "51": -1.9237245700482994e-32,
     "52": 4.237296967377852e-35,
     "53": -1.2620077963069308e-32,
     "54": -1.6760221963911192e-32,
     "55": 2.5862541981332616e-32,
     "56": -1.566723703094106e-32,
     "57": -1.828497772688186e-32,
     "58": -7.538033848800542e-33,
     "59": -2.1959896328498806e-32,
     "60": 3.0008498801739316e-32,
     "61": 2.76337180944341e-32,
     "62": 1.9252409577608601e-32,
     "63": 9.026815076532231e-33,
     "64": -1.1244308762225673e-32,
     "65": 9.325943858669948e-33,
     "66": 2.1493157480297185e-33,
     "67": 1.509420851417015e-32,
     "68": 1.4553054996089724e-32,
     "69": 8.243723515217471e-33,
     "70": 1.8290161656968985e-32,
     "71": 2.0955211592426566e-32,
     "72": -2.8458394972461104e-32,
     "73": -1.0934888527046507e-32,
     "74": 4.241456552861395e-33,
     "75": -1.6696429354860005e-32,
     "76": 5.037384512487135e-33,
     "77": 1.8314388595539432e-32,
     "78": 2.095216265395412e-32,
     "79": 2.673074337440874e-33,
     "80": -9.63643673244424e-33,
     "81": -1.7458478832611077e-33,
     "82": -1.4194432240804983e-32,
     "83": 1.3747992710674125e-32,
     "84": 2.698331119265237e-32,
     "85": 1.3816017099388272e-32,
     "86": -2.7141579752047084e-32,
     "87": 4.703625299432209e-33,
     "88": -1.9966400438194243e-32,
     "89": -1.1399424058024305e-32,
     "90": -9.489594712823489e-33,
     "91": -2.843654730792512e-33,
     "92": 2.9442615821253466e-32,
     "93": -1.4229029427272583e-33,
     "94": -1.4804601970958062e-32,
     "95": -2.1059425044098716e-32,
     "96": -9.13119015867762e-33,
     "97": 2.8564824230984554e-32,
     "98": -3.0768547000358113e-32,
     "99": 7.480214220419471e-33,
     "100": -2.816701931025103e-32,
     "101": 2.0955549547052428e-32,
     "102": 1.274222505043119e-32,
     "103": 7.069400985326159e-33,
     "104": -4.31897048706454e-33,
     "105": -3.763184635710269e-33,
     "106": 1.7301118342602375e-32,
     "107": -9.936944516392265e-33,
     "108": -1.3670392451104592e-32,
     "109": -1.0392986366001402e-32,
     "110": 2.461166758589591e-32,
     "111": -1.6309227393170897e-33,
     "112": -1.0949995098822512e-32,
     "113": -4.7160873762608484e-33,
     "114": -1.4142230006052904e-32,
     "115": 2.309357393715853e-32,
     "116": 8.739470625261508e-33,
     "117": -1.0016881805668026e-32,
     "118": -7.101994504938584e-33,
     "119": -9.945890763085991e-33,
     "120": 2.0361243113163696e-32,
     "121": -1.8674045785852897e-32,
     "122": -1.7518680306420502e-32,
     "123": 2.8296400095974285e-32,
     "124": -2.4900755442225697e-32,
     "125": -9.617437070315105e-33,
     "126": 1.794378020598012e-32,
     "127": 1.955332290710766e-32,
     "128": 1.0218491576461526e-33,
     "129": 1.749502789071402e-32,
     "130": 1.718322507542253e-32,
     "131": 2.569480481494203e-32,
     "132": -3.764579433225917e-33,
     "133": 1.4514087358359965e-32,
     "134": -2.7629830146868753e-32,
     "135": 4.254762046886749e-33,
     "136": -1.4769792644494337e-32,
     "137": -1.4739870435794156e-32,
     "138": -2.3605519359356897e-32,
     "139": 2.2058730424148005e-32,
     "140": -1.0300015048426929e-32,
     "141": -3.092898728556597e-32,
     "142": 2.053049960600272e-32,
     "143": -1.3965381289075506e-32,
     "144": -1.964162751210937e-32,
     "145": -4.211798463048164e-33,
     "146": 2.6720880242121373e-33,
     "147": 1.4720587920336855e-32,
     "148": -3.57621160629443e-33,
     "149": 2.1444640420334934e-32,
     "150": -1.1098620931120636e-33,
     "151": -8.845065282795874e-33,
     "152": -2.5212761030292703e-32,
     "153": -1.2670822584826368e-32,
     "154": 2.8135945117087043e-32,
     "155": 3.6640026672016234e-33,
     "156": 2.3302923603568224e-32,
     "157": -1.5473965188514736e-32,
     "158": -2.9959354321667313e-32,
     "159": -1.7726284363719226e-32,
     "160": -1.9803209496205462e-32,
     "161": -8.751070550452216e-33,
     "162": 1.2007638977806165e-33,
     "163": -3.64546622331511e-33,
     "164": 2.8544361813072615e-32,
     "165": -7.4649337122137426e-34,
     "166": 1.316253334114327e-32,
     "167": -1.542179968796112e-32,
     "168": -2.9231186999210754e-33,
     "169": 5.1272404026899446e-33,
     "170": 1.425782518177689e-32,
     "171": 1.4259118225562795e-32,
     "172": 1.3462130116969407e-32,
     "173": -1.3983651410023162e-32,
     "174": 1.565589791855944e-32,
     "175": 1.62276583707994e-32,
     "176": 5.2258533584643955e-33,
     "177": -2.833283454337802e-32,
     "178": -2.2226792320853006e-32,
     "179": 7.42552875385128e-33,
     "180": 1.6310386724474396e-32,
     "181": 1.7633504063976762e-32,
     "182": 1.1503596367394177e-32,
     "183": -2.2828329514367234e-32,
     "184": -1.0995367711396314e-32,
     "185": 7.541542699437747e-33,
     "186": 1.7969845323841666e-32,
     "187": -4.2286131750527075e-34,
     "188": 1.5870315434989118e-32,
     "189": 2.4399511426723627e-32,
     "190": 5.966602143894599e-33,
     "191": -2.8400053718461856e-33,
     "192": 1.2569387707925974e-32,
     "193": -1.8323441371408703e-32,
     "194": 1.6413113175792756e-32,
     "195": -1.3421747477914846e-32
    }
   },
   "outputBias": {
    "rows": 14,
    "columns": 1,
    "weights": {
     "0": -0.018552787601947784,
     "1": -0.3346341848373413,
     "2": -0.018554676324129105,
     "3": -0.3346342146396637,
     "4": -0.2954140305519104,
     "5": -0.01855328492820263,
     "6": -0.018552565947175026,
     "7": -0.01855252869427204,
     "8": -0.0185528676956892,
     "9": -0.01855277270078659,
     "10": -1.1074671745300293,
     "11": -0.33463358879089355,
     "12": -0.018552033230662346,
     "13": -2.686074733734131
    }
   },
   "cellActivationMatrix": {
    "rows": 14,
    "columns": 1,
    "weights": {
     "0": -0.08359580487012863,
     "1": 0.38699954748153687,
     "2": 0.08359594643115997,
     "3": -0.3869995176792145,
     "4": 0.8965683579444885,
     "5": 0.0835958793759346,
     "6": -0.0835958942770958,
     "7": -0.0835958793759346,
     "8": 0.08359581977128983,
     "9": -0.08359586447477341,
     "10": -0.31440773606300354,
     "11": -0.3869994878768921,
     "12": 0.08359590917825699,
     "13": -0.11428088694810867
    }
   },
   "cellActivationHidden": {
    "rows": 14,
    "columns": 14,
    "weights": {
     "0": -1.0118180766034106e-32,
     "1": -2.0639979272366553e-32,
     "2": 2.9534803965716704e-32,
     "3": -4.7883949725158044e-33,
     "4": -1.8303139114602063e-32,
     "5": 2.449082676663138e-32,
     "6": 3.6672264604587535e-34,
     "7": 1.26021795922101e-32,
     "8": 4.229941116327152e-33,
     "9": -2.276023165725616e-32,
     "10": -2.3296984418360695e-32,
     "11": 6.374976228209954e-33,
     "12": 6.062758683817816e-33,
     "13": -4.2247784920751344e-33,
     "14": -3.7505223575000055e-33,
     "15": -7.005412215655179e-33,
     "16": 2.8095288440911946e-33,
     "17": -1.9800993689354162e-32,
     "18": 7.54928406442188e-33,
     "19": -2.4157490364200765e-32,
     "20": 2.986528538624276e-32,
     "21": 9.771794906941426e-33,
     "22": 1.7236571947798723e-32,
     "23": 5.855147647021384e-33,
     "24": 4.038659900115549e-33,
     "25": 2.5254272878608023e-33,
     "26": 1.8803663139814255e-32,
     "27": 5.9485347957224604e-33,
     "28": -1.426038188198993e-32,
     "29": 2.0240859267328047e-33,
     "30": -2.8581633800201313e-32,
     "31": -1.1392754596951327e-32,
     "32": 1.63864985143222e-32,
     "33": -7.875009140930921e-33,
     "34": -2.87951858589152e-32,
     "35": -1.6067069679429752e-32,
     "36": 1.245922919357454e-32,
     "37": -1.876552385825984e-33,
     "38": 1.1182709919506708e-32,
     "39": 2.2671915297310943e-32,
     "40": 1.6319712802780232e-32,
     "41": -2.4585292431399335e-32,
     "42": 2.3268419905635713e-32,
     "43": -1.826336773260993e-32,
     "44": -2.0810309138484672e-33,
     "45": -2.6137854513238704e-32,
     "46": 3.0301963905157977e-32,
     "47": -1.44246821967723e-32,
     "48": 1.9951828716347862e-32,
     "49": -2.5692903452829574e-32,
     "50": 6.757579802935439e-33,
     "51": 1.4171613875074607e-33,
     "52": -2.0220878802099945e-32,
     "53": 1.2504672335809392e-32,
     "54": 1.4202122912595238e-32,
     "55": -1.5589605914644817e-32,
     "56": 9.54800355774791e-33,
     "57": 1.9268982578587257e-32,
     "58": -2.736519404240401e-32,
     "59": 2.86553079086391e-32,
     "60": -1.245742187101015e-32,
     "61": -4.599951105793499e-33,
     "62": 1.0531345724513032e-32,
     "63": -2.2317988641957738e-32,
     "64": -1.025070746851375e-32,
     "65": 2.307229161193689e-32,
     "66": -2.3660029971140404e-32,
     "67": -2.0665812230093812e-32,
     "68": 2.89644834940565e-32,
     "69": -8.030907609840788e-33,
     "70": -1.410195022275404e-32,
     "71": 2.8197326493351106e-32,
     "72": -2.4163885053469238e-32,
     "73": -3.025040672293091e-33,
     "74": 1.8265695211424558e-32,
     "75": 3.725165842326815e-33,
     "76": -2.7547063589627355e-32,
     "77": -4.05800743510413e-33,
     "78": 2.8736408202638207e-32,
     "79": -2.3351471520257185e-32,
     "80": 1.4184461109974133e-32,
     "81": 2.98862855928202e-32,
     "82": -2.2829425662849376e-32,
     "83": 2.4481715950728537e-33,
     "84": 1.6690090501573196e-32,
     "85": 2.932527209768263e-32,
     "86": -5.625666537827903e-33,
     "87": -6.796329239526326e-33,
     "88": 2.344154671362482e-32,
     "89": 1.9552979075010045e-32,
     "90": 9.565623483382766e-33,
     "91": 2.3540288239093892e-32,
     "92": 1.1543535257331302e-32,
     "93": -1.9121410283101058e-33,
     "94": -1.8635861321234373e-32,
     "95": -1.636930103196967e-32,
     "96": 1.5316122745822196e-32,
     "97": -2.507122857171782e-32,
     "98": 2.00389063991209e-32,
     "99": -1.3499171413331756e-32,
     "100": 2.828633198685949e-32,
     "101": -2.443056064063266e-32,
     "102": -2.1921821699133687e-34,
     "103": -1.5535531705139053e-32,
     "104": 6.868710304178209e-33,
     "105": 2.0969318994004372e-32,
     "106": 8.258732190354571e-34,
     "107": -1.4621214566654215e-32,
     "108": -6.664491670609853e-33,
     "109": 2.3231335997603147e-32,
     "110": 2.750350050366985e-33,
     "111": -9.473810762427822e-33,
     "112": -1.681354238766449e-32,
     "113": -1.2025155864014333e-32,
     "114": 2.8284421808539406e-32,
     "115": -1.7951432674203973e-32,
     "116": -1.9701680212415018e-33,
     "117": -1.2148760564371235e-32,
     "118": -1.6679890149343935e-32,
     "119": 1.144665266597546e-33,
     "120": -2.848773531145763e-32,
     "121": 2.4881295133247834e-32,
     "122": 2.05852761733831e-32,
     "123": 1.5791789473618312e-32,
     "124": -5.095108264610217e-33,
     "125": -2.8067131677789906e-32,
     "126": 1.3786698800910826e-32,
     "127": -1.3150781336370923e-32,
     "128": 1.0652770617533128e-32,
     "129": 2.9552339402695096e-32,
     "130": 2.7927424174194677e-32,
     "131": -2.715024608414852e-32,
     "132": 2.1350288080569237e-34,
     "133": 1.3242638873047992e-32,
     "134": 7.787677992188487e-33,
     "135": -2.3524194986747165e-33,
     "136": 1.2825054790493945e-32,
     "137": 2.066688192995306e-32,
     "138": 2.54603554054064e-32,
     "139": 2.1387949266530652e-32,
     "140": 1.0379092022774683e-32,
     "141": -9.270592768425604e-33,
     "142": 2.8035434472619983e-32,
     "143": -2.4753104535554787e-32,
     "144": 1.1594168207125034e-32,
     "145": -9.693605430828543e-33,
     "146": 9.48196722385459e-33,
     "147": -1.9521159177617255e-33,
     "148": 1.3634804359633447e-32,
     "149": -1.7709279368566643e-32,
     "150": 2.2337692866013396e-32,
     "151": -8.754372954894058e-33,
     "152": -2.86620963885151e-32,
     "153": 3.50387829610055e-33,
     "154": -8.779781265287081e-33,
     "155": -2.702777132773635e-32,
     "156": 1.1647547405595874e-32,
     "157": -2.535527502665052e-32,
     "158": 7.826859422953301e-33,
     "159": -2.4620419141337782e-32,
     "160": 8.530914417538618e-33,
     "161": 5.395992482256994e-34,
     "162": 1.541617127407259e-33,
     "163": 7.365392666915119e-33,
     "164": 9.850082463364206e-34,
     "165": 3.094052770135517e-32,
     "166": 2.181883700640013e-32,
     "167": -2.589401878131176e-32,
     "168": 2.5944588548284134e-32,
     "169": 2.1899417144149e-32,
     "170": 1.706483956998328e-32,
     "171": 1.1557779310127391e-32,
     "172": -3.0046576002498327e-32,
     "173": -1.7324970592348497e-32,
     "174": 1.037894747370373e-33,
     "175": 1.1575880453762116e-32,
     "176": -2.814283351398286e-32,
     "177": -1.145575374731571e-32,
     "178": -2.0049541684259965e-32,
     "179": -5.27126821536643e-33,
     "180": 1.0712102960206913e-32,
     "181": -2.2520937741627206e-32,
     "182": 2.952746006475994e-32,
     "183": 1.2561309122999948e-32,
     "184": -3.309795362572159e-33,
     "185": -3.077883257592781e-32,
     "186": 1.9486976169237327e-33,
     "187": -2.662894372691761e-32,
     "188": 2.1468604342044385e-32,
     "189": -1.5825464448033493e-32,
     "190": 1.8996238501837716e-32,
     "191": -2.703124491354303e-32,
     "192": -1.350460660533637e-32,
     "193": 1.661111638298114e-32,
     "194": 2.2179424306618683e-32,
     "195": -1.7238657715587463e-33
    }
   },
   "cellActivationBias": {
    "rows": 14,
    "columns": 1,
    "weights": {
     "0": -0.346729040145874,
     "1": -6.232351779937744,
     "2": 0.3467290699481964,
     "3": 6.2323479652404785,
     "4": -5.936304569244385,
     "5": 0.3467279076576233,
     "6": -0.3467285931110382,
     "7": -0.3467288911342621,
     "8": 0.3467283844947815,
     "9": -0.3467279076576233,
     "10": 0.1591232419013977,
     "11": 6.23234748840332,
     "12": 0.3467284142971039,
     "13": -0.04244111850857735
    }
   }
  }
 ],
 "outputConnector": {
  "rows": 1,
  "columns": 14,
  "weights": {
   "0": -1.9470921754837036,
   "1": 1.6552209854125977,
   "2": 1.9471068382263184,
   "3": -1.6552205085754395,
   "4": 0.8654417395591736,
   "5": 1.9470932483673096,
   "6": -1.9470912218093872,
   "7": -1.9470915794372559,
   "8": 1.9470912218093872,
   "9": -1.9470914602279663,
   "10": -6.651376247406006,
   "11": -1.655220627784729,
   "12": 1.947084903717041,
   "13": -17.568655014038086
  }
 },
 "output": {
  "rows": 1,
  "columns": 1,
  "weights": {
   "0": 0.7369943261146545
  }
 }
}